{
  "hiddenWeights": [
    [
      0.2508742129476299,
      0.11872277526888197
    ],
    [
      0.8850903577569457,
      0.6129794505341606
    ],
    [
      0.5905157620252632,
      0.37749831232047887
    ],
    [
      0.19408359312469378,
      0.39163896181411517
    ],
    [
      0.9272011418776448,
      0.6036799759928803
    ],
    [
      -0.014754227718204482,
      -0.2348419095772104
    ],
    [
      0.4376894652066394,
      -0.3054607888926767
    ],
    [
      0.26098823850947517,
      -0.13280371366952048
    ],
    [
      0.7512119010287641,
      -0.38806351161842034
    ],
    [
      0.5118905347396892,
      0.21020902195695956
    ],
    [
      0.20996066045875403,
      -0.22729992355503403
    ],
    [
      1.0302083505754902,
      0.25767305217280756
    ],
    [
      0.39441616049177736,
      0.7923383973794252
    ],
    [
      0.3212027346356604,
      -0.09164965926633599
    ],
    [
      0.8122905067383966,
      0.02554350512548778
    ],
    [
      0.3509175093642807,
      0.08500453560168035
    ],
    [
      0.9921567340709135,
      0.1788610335108874
    ],
    [
      -0.12698216107737542,
      -0.17043187086874037
    ],
    [
      0.9712885041464981,
      0.6216548714153209
    ],
    [
      0.18949383476703183,
      0.4290890686462456
    ]
  ],
  "hiddenBiasWeights": [
    0.10070610333035294,
    0.6428158782461925,
    0.9650643506204434,
    0.46956111999036537,
    0.4258046356190419,
    0.2293208231971626,
    0.14280402687074906,
    0.6291741925989882,
    0.49536986896484964,
    0.3624510585274088,
    0.8556497194836041,
    0.26192325170822406,
    0.7565136099940873,
    0.3521177905175256,
    0.6527683453606422,
    -0.041658723227331204,
    0.44731670831168757,
    0.5582518203599658,
    0.970000395658557,
    0.23781966017111603
  ],
  "outputsWeights": [
    [
      -0.3216135982493357,
      -0.27843504415497866,
      -0.12558329937863935,
      -0.3032218729969678,
      -0.24759535661626625,
      -0.013105548012356806,
      0.22886671402236033,
      0.06563640315402641,
      0.3644634606467862,
      -0.22878535336161682,
      0.07000922663439026,
      -0.3738762558993458,
      -0.06391496585343037,
      0.4707185326418661,
      0.2083132297747258,
      -0.2552612514570059,
      -0.37284229725208495,
      0.28097776787328976,
      -0.1783040611043509,
      0.2890136857551515
    ]
  ],
  "outputsBiasWeights": [
    0.7528042531916268
  ]
}